svm_type nu_svr
kernel_type linear
nr_class 2
total_sv 981
rho -0.00012087
SV
1 1:-0.021758195 2:0.002212821 3:0.35700626 
1 1:-0.8548771 2:0.15538921 3:0.5855321 
-1 1:0.82375198 2:-0.08654589 3:-0.41018763 
1 1:-0.10736907 2:-0.27852476 3:-0.34048378 
1 1:-1.0206649 2:1.0005657 3:1.3020532 
-1 1:-0.0087652163 2:0.11406859 3:1.114703 
1 1:0.27378388 2:-1.2452488 3:-1.9322301 
1 1:0.26683821 2:-1.009846 3:-1.9121013 
1 1:-0.46896855 2:-0.077915365 3:-0.046148574 
1 1:-0.90310455 2:0.071710045 3:0.011284142 
1 1:-1.2658491 2:0.00056737883 3:-0.15918925 
1 1:-1.2294278 2:0.014924772 3:-0.12723499 
1 1:-0.50896198 2:-0.042147936 3:-0.048324652 
-1 1:0.61291193 2:-1.5968426 3:-1.7114028 
1 1:-0.23597913 2:0.072599798 3:0.26345426 
1 1:-0.19252931 2:7.4926329e-18 3:-0.077356033 
1 1:-0.33069948 2:-0.12399907 3:-0.054790789 
1 1:0.065736729 2:-0.64076623 3:-1.4453285 
1 1:0.34773157 2:-0.60415322 3:-1.6693844 
1 1:-0.073371754 2:-2.3161339 3:-1.1300157 
1 1:-1.2200469 2:0.9161617 3:0.7190929 
1 1:0.72277503 2:-3.0078146 3:-2.1928722 
1 1:-1.2422272 2:0.90706536 3:0.64758309 
-1 1:-6.1698173 2:0.24275338 3:2.7420047 
1 1:3.1714186 2:0.0030599166 3:0.23364056 
-1 1:-9.3412359 2:0.23969347 3:2.5083641 
1 1:0.8159016 2:-0.087717609 3:-1.0914941 
-1 1:-5.3539156 2:0.15503577 3:1.6505106 
1 1:3.3510494 2:-0.19096146 3:-1.8471731 
1 1:-0.62182921 2:1.2927384 3:1.3982109 
1 1:-0.061327293 2:-1.3529372 3:-0.60845549 
1 1:-0.20906237 2:-2.3385019 3:-1.1133536 
1 1:-0.23741325 2:0.79906659 3:0.59975826 
1 1:-1.5526946 2:1.2016164 3:1.2269724 
1 1:-0.49954426 2:1.4503346 3:2.2655122 
1 1:-0.08438523 2:-0.72692222 3:-1.5702372 
1 1:-0.58392949 2:0.72341242 3:0.69527502 
1 1:-0.54582483 2:0.68948463 3:0.80835477 
1 1:0.197574 2:-4.2874084 3:-2.9932438 
1 1:0.61654195 2:-4.806639 3:-3.4843193 
1 1:-0.013328461 2:0.7029463 3:1.0509682 
-1 1:-0.20220739 2:-1.7412169 3:-1.396144 
1 1:1.3652534 2:-0.61952894 3:-0.54082917 
1 1:1.0396336 2:-0.5580869 3:-0.33375271 
1 1:-1.3525929 2:1.5758276 3:1.8132656 
-1 1:0.70102141 2:-0.5637877 3:-0.29640497 
1 1:0.20449999 2:-0.19502101 3:-0.41088258 
1 1:-2.2076792 2:0.0082934494 3:0.28946432 
1 1:0.8997923 2:-0.12058338 3:-0.22216891 
1 1:-0.77393175 2:0.04319152 3:0.098564431 
1 1:-1.1670213 2:0.12570423 3:0.46942371 
-1 1:-0.75647893 2:0.43608411 3:1.3860944 
-1 1:-0.72743203 2:0.33043714 3:0.70587986 
1 1:-0.46212073 2:-0.0079771403 3:0.25294416 
-1 1:0.72609152 2:-0.065821407 3:-0.42990009 
1 1:-0.14386421 2:-1.0477597 3:-1.239573 
1 1:0.088170097 2:-1.1455018 3:-1.595389 
1 1:-0.31519059 2:0.0012521282 3:-0.38983588 
1 1:-0.42747905 2:0.16738877 3:0.69292933 
1 1:-0.60740728 2:0.09021637 3:0.0050838358 
-1 1:0.52920207 2:-0.87729562 3:-1.0773273 
1 1:-0.36529142 2:2.233838 3:1.396152 
-1 1:0.43749607 2:-1.3056413 3:-0.36244518 
-1 1:-0.16391065 2:-1.3565423 3:-0.31882464 
1 1:-0.18478394 2:0.053429573 3:0.14359083 
1 1:0.33425651 2:-1.0950138 3:-2.099622 
1 1:-0.17585126 2:0.053429573 3:0.031687692 
1 1:-0.40528015 2:1.4048454 3:1.3482084 
1 1:-0.17519482 2:1.8945876 3:1.3176944 
1 1:-1.0795468 2:0.61201727 3:0.33277815 
1 1:-0.78835864 2:0.93155906 3:0.67067935 
-1 1:0.54499878 2:-0.5271763 3:-0.72720129 
-1 1:-1.8997396 2:1.7391659 3:2.946608 
1 1:-0.30723103 2:0.46810502 3:0.87695698 
1 1:-0.6496085 2:0.33627975 3:0.58425155 
1 1:-0.68527012 2:0.50743075 3:1.0609475 
-1 1:0.42125326 2:-0.59743296 3:-0.78023681 
-1 1:0.51495434 2:-4.7490176 3:-2.6368985 
1 1:-0.83611742 2:3.2047565 3:1.6025089 
1 1:-0.70399629 2:2.4698334 3:1.2479512 
-1 1:-0.56875469 2:-0.14818888 3:-0.17349293 
1 1:0.5387779 2:0.14818888 3:0.20533859 
1 1:-1.7294961 2:0.063941156 3:0.010014656 
-1 1:1.1075145 2:-0.026005339 3:0.12739478 
1 1:0.086967432 2:-0.4707005 3:-1.0050125 
1 1:0.52364671 2:-1.5662161 3:-1.2027145 
1 1:0.5095359 2:-2.3028552 3:-2.5430117 
1 1:-0.01411081 2:-0.73663908 3:-1.3402972 
1 1:0.38703479 2:-0.92995335 3:-2.1398751 
1 1:-0.042912843 2:-0.44643137 3:-1.8502733 
-1 1:-0.77269894 2:0.12195463 3:0.26423143 
1 1:0.42873281 2:0.045231714 3:0.028335198 
1 1:0.38038008 2:-0.11587883 3:0.13568968 
1 1:0.66115848 2:0.027782522 3:-0.036423843 
1 1:0.77162469 2:-0.02097488 3:-0.14957935 
1 1:0.16523384 2:-0.018711532 3:-0.48921196 
1 1:-0.74389651 2:0.059385048 3:0.57536497 
1 1:0.62076973 2:0.017226197 3:-0.1936932 
1 1:0.80704082 2:-0.050091968 3:-0.11782653 
-1 1:-0.081748244 2:0.035132376 3:-0.040764379 
1 1:-0.29861634 2:2.292431 3:2.1482677 
-1 1:0.076610783 2:0.75459694 3:0.85214909 
1 1:-0.160518 2:1.2495812 3:0.64283028 
1 1:-1.9803167 2:2.5569894 3:1.3894084 
1 1:-0.36063418 2:0.89969935 3:0.19105354 
1 1:-0.23399111 2:1.3566404 3:1.3730434 
1 1:-1.3540876 2:1.7966652 3:1.8130642 
1 1:-0.81111991 2:1.3381671 3:1.5400179 
1 1:0.36724963 2:-0.12206401 3:0.047810389 
1 1:0.57847031 2:-0.16795424 3:-0.25616854 
1 1:0.33545301 2:-0.026918854 3:-0.39793219 
-1 1:-1.4497941 2:0.017502668 3:-0.17911935 
-1 1:-1.0576752 2:0.026005339 3:-0.22584258 
1 1:0.64761353 2:-0.051690432 3:-0.2157312 
1 1:-0.61317058 2:0.38052751 3:2.2251639 
1 1:-0.096258911 2:0.53712352 3:2.8254792 
1 1:1.297664 2:-0.12750996 3:-0.43974926 
1 1:-1.0325828 2:0.18968707 3:0.53554526 
-1 1:-1.7699207 2:1.108475 3:3.1807014 
1 1:-1.5992363 2:1.1850798 3:1.2989693 
1 1:-0.87176715 2:0.6509276 3:0.67925661 
1 1:-1.0778895 2:0.54690542 3:0.51846728 
1 1:-1.0040074 2:0.51665376 3:0.46264865 
1 1:-0.0040335737 2:0.038894818 3:0.038018803 
-1 1:0.68919226 2:-0.061123866 3:-0.056018909 
-1 1:0.34647475 2:-0.18817561 3:-1.4012493 
1 1:0.29153191 2:-1.3359383 3:-1.401836 
1 1:0.0032719022 2:-0.68642477 3:-1.452524 
1 1:0.80924996 2:-1.4499382 3:-1.7284801 
1 1:-0.31165809 2:0.21940735 3:0.47328154 
1 1:-0.36025188 2:-0.077228139 3:-0.45283966 
0.1264976920217828 1:-0.24659717 2:0.41556849 3:2.5102176 
1 1:-0.86795344 2:0.16710868 3:0.62500945 
1 1:0.7465769 2:-0.28596257 3:-0.85943575 
1 1:-0.12137654 2:-0.11885389 3:-0.2344263 
1 1:-0.20284479 2:0.082966996 3:-0.22255628 
1 1:-0.26177958 2:0.24644021 3:0.065920088 
1 1:-0.51733397 2:-0.075084646 3:-0.59756121 
1 1:-0.48772354 2:-0.1180775 3:-0.59847301 
1 1:-0.14579709 2:1.1741502 3:2.0708594 
1 1:0.2576646 2:0.061928806 3:-0.32182131 
1 1:-0.14701117 2:1.1849012 3:2.1174153 
-1 1:1.2422297 2:-0.44139558 3:-0.86666741 
-1 1:-0.80105701 2:7.4926329e-18 3:-0.11577163 
1 1:-0.64977478 2:0.123191 3:0.4915115 
1 1:-0.60406925 2:0.11390402 3:0.26515149 
1 1:-0.94909369 2:0.13220169 3:0.53868088 
1 1:-2.1094824 2:0.038175749 3:0.43885354 
-1 1:0.12504259 2:-0.052701774 3:-0.12008853 
1 1:-1.2508209 2:0.69707375 3:1.1994496 
1 1:-0.39856 2:0.61574307 3:1.1100767 
1 1:-0.74732614 2:0.85083395 3:1.2230038 
1 1:-0.81313464 2:0.82011738 3:1.2312549 
1 1:-2.3877857 2:0.067544826 3:0.041085526 
-1 1:-1.9322213 2:0.048278684 3:0.33458693 
-1 1:-1.0099781 2:0.028785882 3:0.26535142 
1 1:1.5517236 2:-0.0018132839 3:0.011497223 
-1 1:2.010098 2:-0.033432422 3:0.0080695373 
-1 1:-1.2512213 2:0.026745938 3:0.16561231 
-1 1:1.3626046 2:-0.20845576 3:-0.35504331 
1 1:-1.0879046 2:0.85662004 3:1.2558639 
-1 1:0.89233626 2:-1.0789533 3:-1.7957049 
-1 1:-0.073085623 2:-0.90764142 3:-1.4440879 
1 1:-0.12248269 2:0.68530816 3:0.90424686 
1 1:-0.95408914 2:0.36636909 3:0.65869346 
1 1:-0.046321091 2:-2.0170346 3:-0.82013818 
1 1:-0.90776804 2:2.3834037 3:1.4788316 
1 1:-0.48179881 2:0.79381895 3:0.75278671 
1 1:-0.51324546 2:0.82321492 3:0.73094437 
1 1:0.70871139 2:-0.19764795 3:-0.12116102 
1 1:-0.9971752 2:1.5144634 3:1.3471165 
1 1:-0.59200571 2:1.0364365 3:1.4563651 
1 1:-0.76727277 2:1.0364365 3:1.0257364 
1 1:-0.99272246 2:1.344008 3:1.4377941 
1 1:-1.1889049 2:0.7602404 3:0.60605797 
-1 1:0.68703151 2:-0.98554157 3:-0.88646166 
1 1:-0.25483203 2:0.56707917 3:0.05987486 
1 1:0.43219948 2:-0.4184624 3:-0.8265868 
1 1:-0.33908185 2:0.21781725 3:-0.2264383 
1 1:-0.31381623 2:-0.2332984 3:0.43469097 
-1 1:-0.2851566 2:-2.0081633 3:-1.6642369 
1 1:-0.66724877 2:2.4679467 3:2.2507106 
1 1:-0.56422274 2:2.2315635 3:1.755647 
-1 1:-0.17021927 2:2.6675673 3:-0.1124127 
1 1:0.30403265 2:-4.0995035 3:-2.2548706 
1 1:0.7372925 2:-6.8595138 3:-2.0199569 
1 1:0.56707323 2:-4.1919465 3:-2.1323696 
1 1:-0.16142085 2:-0.06423229 3:0.12093589 
1 1:0.3253281 2:0.55113886 3:1.9946742 
1 1:0.3938798 2:0.62493384 3:2.3720336 
-1 1:-0.068551694 2:-0.073794985 3:-0.37735946 
1 1:-1.4828555 2:0.32723341 3:0.37799 
-1 1:0.87927013 2:-0.53688931 3:-0.33952434 
1 1:-0.85309558 2:0.25486355 3:0.84232958 
1 1:-0.04528041 2:-0.42316258 3:0.10071002 
1 1:0.28202879 2:-1.0835271 3:-1.1585782 
-1 1:0.3472907 2:-0.088176442 3:-0.039448279 
1 1:-2.3995102 2:0.2447635 3:0.33326743 
1 1:0.34570285 2:-0.26880398 3:-0.40711222 
-1 1:0.98944944 2:-0.063879658 3:-0.090139464 
1 1:-1.4499571 2:0.0553859 3:0.40930379 
-1 1:0.43960425 2:-0.063879658 3:-0.19299224 
-1 1:-0.28104251 2:-0.037901057 3:-0.048815412 
1 1:0.85982628 2:0.053429573 3:-0.062877816 
1 1:1.5333616 2:7.4926329e-18 3:-0.054820052 
1 1:-0.6357942 2:0.29238321 3:1.0384317 
1 1:2.1124141 2:-0.3840493 3:-2.1209697 
1 1:-1.4732626 2:7.4926329e-18 3:0.057633686 
-1 1:1.2163371 2:-0.031180026 3:-0.056953843 
1 1:0.72517728 2:-0.16858923 3:-0.49147546 
1 1:-0.1765539 2:-0.12984191 3:-0.34047101 
1 1:-1.8644519 2:0.32981451 3:0.63250124 
-0.001188718753337424 1:2.1927283 2:-0.6161562 3:-0.54881461 
1 1:-2.5413881 2:0.27831007 3:0.18706422 
1 1:-0.45510726 2:-0.14548766 3:-0.71705841 
1 1:0.50610189 2:-0.96374331 3:-1.6773452 
-1 1:0.5651974 2:-0.15404808 3:-0.20405697 
1 1:0.11009015 2:-0.29953574 3:-0.92111538 
1 1:-0.58604699 2:-0.14548766 3:-0.67738698 
1 1:-0.1414657 2:-3.0459537 3:-1.5733281 
1 1:0.23172529 2:-3.2539197 3:-2.1106676 
1 1:0.23444157 2:-3.3485819 3:-1.982602 
1 1:-0.4510253 2:0.67044356 3:0.36210354 
1 1:-0.86172842 2:0.034184513 3:0.28478232 
-1 1:-1.4274538 2:0.22870043 3:0.11598183 
1 1:-0.53389811 2:0.083094447 3:0.33514444 
1 1:0.014297257 2:0.043751323 3:0.13643501 
-1 1:0.72936123 2:-0.043751323 3:-0.19480719 
-1 1:0.43069186 2:-0.029597138 3:-0.096398881 
1 1:-0.64981447 2:0.71583087 3:1.8017027 
1 1:-0.28854722 2:-0.94442021 3:-1.3546222 
1 1:-0.9904669 2:0.19838496 3:0.50392277 
1 1:-0.14097874 2:-0.25285241 3:-1.113465 
-1 1:-0.6627496 2:0.073997302 3:0.034994816 
1 1:0.86373854 2:0.11656413 3:0.59172037 
1 1:1.3209568 2:0.019737962 3:0.084327525 
-1 1:0.58436545 2:-0.12533864 3:-0.40461063 
-1 1:0.57462305 2:-0.043653284 3:-0.25417622 
1 1:0.16985811 2:-0.02515342 3:-0.17885955 
1 1:-0.73360943 2:-0.027591556 3:0.0042166287 
1 1:-0.046059624 2:-0.19527422 3:-0.28542371 
1 1:0.41773506 2:-0.43681593 3:-0.51720759 
1 1:-0.21226775 2:-0.45855075 3:-0.92754466 
1 1:0.026609698 2:0.16873613 3:0.24276586 
-1 1:0.50594626 2:-0.19392685 3:-0.35074251 
-1 1:-0.83437385 2:-0.093551663 3:0.075497805 
-1 1:-1.4119039 2:0.019030297 3:-0.1155053 
1 1:2.7396698 2:-0.77557652 3:-0.56226624 
1 1:1.8748063 2:-0.47947044 3:-0.5523471 
1 1:2.0282685 2:-0.49015927 3:-0.55655593 
1 1:3.0474127 2:-0.96632127 3:-0.87551048 
1 1:2.4872521 2:-0.49550369 3:-0.68523227 
1 1:-0.97678898 2:1.4040379 3:1.4148309 
-1 1:1.0680926 2:-1.5582042 3:-2.1215288 
1 1:-0.15265916 2:-0.11094114 3:-0.10389694 
-1 1:0.11743074 2:0.042889469 3:0.32759611 
-1 1:0.26448879 2:-0.0087058795 3:-0.23998779 
1 1:1.5212344 2:-0.65101007 3:-1.4776195 
1 1:-0.96109835 2:0.025647051 3:0.22051838 
1 1:0.56013606 2:-0.62536302 3:-1.2571012 
1 1:-0.095224038 2:-0.15589505 3:-0.80063424 
1 1:0.93061528 2:-0.85801136 3:-1.9170893 
1 1:0.26386857 2:-0.26669249 3:-0.13410705 
1 1:0.22964286 2:-0.084107203 3:-0.69779356 
1 1:0.09004653 2:0.05069867 3:1.1911546 
-1 1:0.33989614 2:-0.22554716 3:-0.46113866 
-1 1:-1.6021062 2:0.16922565 3:0.67240773 
1 1:0.60376471 2:-0.49223966 3:-0.5952457 
1 1:-0.073379117 2:-0.33698207 3:-1.3784755 
-1 1:-0.65118397 2:0.35252128 3:0.76169946 
-1 1:-0.301739 2:0.29009349 3:1.35221 
1 1:-0.65766391 2:-0.056887682 3:-0.066866039 
1 1:-0.51006472 2:0.31180026 3:0.94692575 
1 1:0.40342312 2:0.31180026 3:0.2552805 
1 1:0.1368948 2:0.34082788 3:0.5757592 
1 1:-0.65437785 2:0.59267195 3:0.41102378 
1 1:1.4687595 2:-0.92861098 3:-0.74602942 
1 1:0.62836449 2:-0.091440462 3:-0.042338639 
-1 1:-0.84039498 2:0.83717052 3:0.70369078 
1 1:1.0089216 2:-0.96934893 3:-0.82122072 
1 1:1.6005547 2:-0.18254195 3:-1.4546779 
1 1:1.6114912 2:-0.052832179 3:-0.53725011 
1 1:-0.11297348 2:0.17140458 3:0.39686189 
1 1:-0.44568524 2:0.11524773 3:0.43517139 
1 1:0.16027211 2:-1.6426661 3:-1.0347354 
1 1:0.28756832 2:-2.3622986 3:-1.470092 
1 1:-0.75640629 2:0.38590636 3:1.585443 
1 1:-0.44659889 2:0.35020187 3:0.95845489 
1 1:-0.85637649 2:0.38590636 3:0.60609614 
1 1:-1.174754 2:0.4227414 3:0.85526608 
-1 1:0.85313082 2:-0.18282347 3:-0.44378601 
1 1:0.72892661 2:-0.17868376 3:-0.94867147 
1 1:-1.4322731 2:-0.11625367 3:-0.51371029 
-1 1:-0.78530197 2:0.16311591 3:0.59777912 
1 1:-0.89776709 2:-0.053598061 3:-0.46351343 
1 1:-1.226673 2:-0.0066601751 3:-0.068915196 
1 1:0.14132267 2:0.14863097 3:0.40402415 
1 1:-0.65913914 2:0.23340367 3:0.67839433 
1 1:-0.0027115952 2:0.072599798 3:-0.14969529 
-1 1:0.89049823 2:-0.1573725 3:-0.4913872 
-1 1:-2.1367669 2:0.07570403 3:0.25431893 
-1 1:-4.3544656 2:1.4112815 3:2.8963572 
-1 1:-4.199822 2:1.4421563 3:2.017532 
-1 1:0.13168964 2:-1.3397631 3:-1.8616835 
1 1:1.6294066 2:0.012762116 3:-0.094307088 
1 1:-0.68542518 2:0.13323649 3:0.45601237 
1 1:-1.484414 2:0.065852516 3:-0.08534999 
1 1:-1.0272054 2:0.14089376 3:0.31637391 
1 1:1.5845834 2:-0.052502932 3:-0.17488061 
1 1:0.21614949 2:-0.039759502 3:-0.03859537 
1 1:0.54616952 2:-0.037465685 3:-0.07998731 
1 1:1.3074933 2:-0.044856874 3:-0.18837473 
1 1:0.85718961 2:-0.049699378 3:-0.1395841 
1 1:0.33002003 2:0.0022938174 3:-0.04139194 
-1 1:0.64144409 2:-0.063003545 3:-0.31488749 
1 1:-1.56665 2:0.10000442 3:0.24037438 
1 1:0.15774729 2:-0.18002734 3:-0.78824585 
-1 1:0.5294393 2:-0.14911047 3:-0.12552578 
1 1:-0.20433704 2:0.057983864 3:0.38409858 
1 1:-0.2778206 2:0.13885182 3:0.66212497 
1 1:-1.1694918 2:0.12200582 3:0.59526923 
-1 1:-0.89167123 2:-0.016845992 3:-0.066855742 
1 1:-1.3772871 2:0.16195125 3:0.80410861 
-1 1:-0.58124758 2:0.0042114981 3:0.0010046628 
1 1:-1.9433579 2:0.090829605 3:0.56371366 
1 1:-1.488806 2:0.009353695 3:0.34108201 
1 1:-0.051239939 2:-2.9500793 3:-1.3065679 
1 1:0.46871401 2:-2.6655274 3:-0.47799898 
1 1:-2.3434112 2:0.1576917 3:0.65366471 
1 1:1.9976733 2:-0.35311764 3:-2.1794473 
-1 1:0.092602597 2:0.20647448 3:1.1684558 
1 1:-1.0311594 2:0.70730454 3:0.90215609 
1 1:-0.18298388 2:-0.30314778 3:-0.66178666 
1 1:-0.021015273 2:-0.073925931 3:-0.36904274 
1 1:-1.058384 2:0.61236072 3:1.0012601 
1 1:-1.1425676 2:0.063355594 3:0.077770018 
1 1:-1.3647555 2:0.13059176 3:0.1122122 
-1 1:-1.605918 2:0.0048935421 3:0.0090678336 
1 1:1.0561663 2:-1.9955882 3:-1.2714961 
-1 1:0.10910864 2:0.12947589 3:0.32700868 
1 1:-0.21890338 2:7.4926329e-18 3:-0.14689664 
1 1:1.165961 2:-2.1250641 3:-1.4516082 
1 1:-0.55671595 2:0.11401066 3:-0.047527941 
1 1:1.3906533 2:-0.4962528 3:-1.8108656 
1 1:1.9722771 2:-0.30053147 3:-1.4449356 
1 1:0.45156788 2:-0.48880539 3:-1.5171881 
1 1:0.67716753 2:-0.27891777 3:-0.79448506 
1 1:0.52817934 2:-0.042171799 3:-0.87443907 
1 1:0.48972777 2:-0.015420528 3:-0.31904717 
-1 1:-1.6657326 2:0.49876641 3:1.6004297 
1 1:0.6241666 2:-1.7290795 3:0.79229057 
1 1:1.4231713 2:-2.1057494 3:-0.65298346 
1 1:1.076123 2:-1.9838546 3:-0.46778458 
-1 1:-0.77694227 2:-0.038863624 3:0.21056267 
1 1:0.45195642 2:-0.25477506 3:-1.2600751 
1 1:0.79900471 2:-0.37666985 3:-1.445274 
1 1:-0.092714193 2:-0.26430651 3:-0.60301235 
1 1:-0.69303039 2:0.066438481 3:0.29932626 
1 1:-0.47961734 2:0.15501956 3:0.17100432 
1 1:-1.2204344 2:0.52997666 3:1.5398828 
-1 1:-0.026478427 2:0.89802952 3:-0.38933178 
1 1:-0.65105276 2:0.035771824 3:0.015072166 
-1 1:-1.8254834 2:0.0081978583 3:0.15402956 
1 1:1.1497144 2:7.4926329e-18 3:0.069533831 
1 1:-0.21852203 2:-0.36976653 3:-0.35116903 
1 1:0.18427336 2:-0.11404696 3:0.25617893 
1 1:-0.44122891 2:0.24153581 3:0.60072949 
1 1:-0.068297224 2:0.26111288 3:0.26751892 
1 1:-0.082994031 2:0.14875522 3:0.23012559 
1 1:-0.063698241 2:1.5945673 3:1.2030282 
1 1:-0.11022325 2:1.6835727 3:1.3755314 
1 1:0.20048235 2:0.24428078 3:0.33681401 
1 1:-0.8326889 2:0.021064164 3:0.21911445 
-1 1:-0.14902055 2:-0.03194384 3:-0.14719785 
1 1:0.31973575 2:-0.075092395 3:-0.61062003 
1 1:-0.36066496 2:0.015674419 3:0.33513255 
-1 1:0.5963951 2:-0.0081978583 3:0.17119194 
-1 1:1.2767958 2:-0.098964672 3:-0.77456064 
1 1:-0.61714815 2:-0.029860681 3:-0.17704696 
1 1:1.9958336 2:-0.38395462 3:-1.3377845 
1 1:0.57832357 2:-0.024964259 3:-0.21874114 
1 1:1.6307732 2:-0.34018003 3:-0.99463053 
1 1:1.8920312 2:-0.31446195 3:-1.111342 
1 1:0.52206273 2:0.04429143 3:-0.20564762 
1 1:0.6301141 2:0.04429143 3:-0.10388503 
-1 1:0.69193151 2:-0.27081209 3:-0.3231725 
1 1:-0.34217316 2:0.024370779 3:-0.23796335 
1 1:-0.73057918 2:0.19714343 3:0.53153305 
1 1:0.016879078 2:-0.14419643 3:-0.008843301 
1 1:0.22405267 2:-1.2655911 3:-0.76163023 
1 1:-1.0102991 2:0.066545433 3:0.20333661 
1 1:0.11772509 2:0.055605544 3:0.024386326 
1 1:0.24150303 2:0.058663967 3:0.061051936 
1 1:1.0661775 2:-0.26043152 3:-0.6990723 
1 1:-0.12368946 2:0.035044433 3:0.4146752 
1 1:-0.42774927 2:2.2161373 3:2.1060458 
1 1:-0.24351515 2:1.5848191 3:1.5433325 
1 1:-0.0040091452 2:-0.57344741 3:-0.42879038 
1 1:-0.65964764 2:7.4926329e-18 3:-0.070042142 
1 1:-0.30050125 2:0.72531171 3:0.73713346 
-1 1:-1.8791449 2:7.4926329e-18 3:0.11082276 
1 1:0.018531898 2:0.29447115 3:1.9756617 
1 1:1.2124304 2:-0.0056096415 3:-0.4568143 
1 1:-0.16283518 2:-0.24422581 3:-0.92736437 
1 1:-0.41945752 2:0.007988611 3:-0.20660853 
1 1:-0.24012573 2:-0.047273375 3:-0.37565904 
1 1:-0.15593185 2:0.29851341 3:0.71244017 
-1 1:0.75316033 2:-0.18254468 3:-0.71635436 
1 1:-0.71374482 2:0.32269052 3:0.3921745 
-1 1:-0.35731329 2:0.024139342 3:0.24866023 
1 1:0.30733305 2:-0.56249736 3:-0.60706478 
1 1:0.88283546 2:-0.15084256 3:-0.33155499 
1 1:0.19048446 2:-0.23542627 3:-0.54861736 
1 1:-0.38159138 2:0.63646771 3:0.67347671 
-1 1:0.17792156 2:0.51689377 3:0.83608618 
-1 1:0.28480984 2:0.30625926 3:0.30098149 
1 1:-0.20366982 2:1.1533615 3:1.5095629 
1 1:-0.35459165 2:5.5137057 3:2.328515 
1 1:-0.12867393 2:0.2985926 3:0.12691965 
1 1:0.73820747 2:-2.6968628 3:-1.5608598 
1 1:0.26278797 2:3.0248136 3:0.58977328 
1 1:0.1694128 2:-2.273231 3:-1.4259995 
1 1:-0.3069858 2:0.80964439 3:1.2242785 
1 1:-0.037593638 2:0.2360626 3:0.45028988 
1 1:-1.3919102 2:0.086891935 3:0.53673872 
-1 1:0.83999983 2:-0.077099797 3:-0.49256822 
-1 1:0.70587478 2:-0.16946697 3:-1.0501135 
1 1:-1.3269886 2:0.024857196 3:-0.073429657 
1 1:-0.44514626 2:0.05427271 3:-0.20060436 
1 1:0.54063188 2:-0.97124947 3:-2.7885862 
1 1:0.98577814 2:-1.0255222 3:-2.5879818 
1 1:-0.7249819 2:0.01641691 3:0.48335015 
-1 1:-1.5736281 2:0.19223034 3:0.569715 
-1 1:-1.0059615 2:0.060872942 3:0.49400119 
1 1:-0.59326492 2:-0.81898013 3:-0.24253394 
1 1:1.0688591 2:-0.96524434 3:-0.51605894 
-1 1:0.52983718 2:0.21602989 3:-0.038325901 
-1 1:-0.72427438 2:7.4926329e-18 3:0.05003408 
1 1:-0.7400106 2:0.066382992 3:0.099666159 
1 1:0.26795692 2:-0.086956829 3:-0.39331149 
-1 1:-0.70067518 2:0.12863649 3:0.47821455 
-1 1:-0.076654002 2:-0.27908749 3:-1.1471942 
-1 1:-0.51340168 2:-0.029205269 3:-0.021665742 
-1 1:0.78463782 2:-0.21631786 3:-1.22391 
1 1:0.81001728 2:-0.7139634 3:-2.3028999 
1 1:1.2782989 2:-0.71872946 3:-2.0404907 
1 1:1.2869779 2:-0.94457663 3:-0.33346625 
1 1:1.2919337 2:-0.92262434 3:-0.044105681 
-1 1:-0.0049558168 2:-0.021952291 3:-0.28936056 
1 1:-0.88592775 2:0.42187865 3:1.4254831 
1 1:-0.44603054 2:0.37752572 3:1.4537933 
1 1:-1.075863 2:-0.037155198 3:0.37835272 
1 1:-1.5337292 2:0.28643328 3:0.97929271 
1 1:0.12469358 2:0.26170847 3:0.71566219 
-1 1:-0.78277163 2:-0.29432522 3:-0.63177738 
-1 1:0.89375481 2:0.032616745 3:-0.20800612 
-1 1:-1.0184484 2:-0.29432522 3:-0.50765607 
-1 1:0.58159056 2:-1.1973829 3:-0.93703989 
1 1:-0.46916046 2:1.7134764 3:1.7723315 
1 1:0.032109042 2:-1.4890544 3:-1.3153178 
1 1:-0.56124572 2:0.041365539 3:-0.19683993 
1 1:0.18454757 2:0.072304696 3:0.13033869 
1 1:1.0001645 2:0.0036265678 3:0.033623754 
1 1:0.15545363 2:0.054511848 3:-0.002700058 
1 1:0.015134198 2:-0.58109965 3:-0.96338366 
1 1:-0.85600274 2:0.044262909 3:0.37844843 
1 1:-0.15079111 2:-0.36753822 3:-0.63731951 
1 1:0.48139213 2:-0.17686753 3:-0.78529065 
1 1:0.70521163 2:-0.41180113 3:-1.0157679 
1 1:-0.60077077 2:0.9060722 3:0.97497049 
1 1:-0.3415867 2:0.28597689 3:0.64959232 
1 1:-0.70049166 2:-0.13226912 3:-0.55819479 
-1 1:0.66098475 2:-0.08325131 3:-0.23734603 
1 1:-0.26049765 2:0.1541078 3:1.3007903 
1 1:-1.0494034 2:0.041887648 3:0.1959756 
1 1:0.58391537 2:-0.0026879267 3:-0.026836433 
1 1:-0.84832844 2:0.0047686593 3:-0.088715571 
1 1:-0.56495047 2:0.18803551 3:0.5943173 
1 1:-1.0491393 2:0.81007231 3:1.1180354 
1 1:-0.58974642 2:0.32831265 3:0.63671911 
1 1:-0.97962971 2:0.72857752 3:1.3152185 
1 1:0.41083715 2:0.10678517 3:0.13654455 
1 1:1.1700034 2:7.4926329e-18 3:-0.33960537 
1 1:-0.87942651 2:0.013750441 3:-0.074005706 
-1 1:-0.07542317 2:-2.1267658 3:-1.3217411 
1 1:-0.81896613 2:2.3812827 3:1.9436685 
1 1:-0.087050774 2:2.279026 3:1.7794178 
1 1:0.31172315 2:1.1193766 3:0.67422152 
1 1:-0.27585461 2:-0.030057031 3:-0.024966164 
1 1:-0.69820737 2:-0.12225219 3:-0.075752316 
-1 1:0.021758195 2:-0.002212821 3:-0.35700626 
-1 1:0.8548771 2:-0.15538921 3:-0.5855321 
1 1:-0.82375198 2:0.08654589 3:0.41018763 
-1 1:0.10736907 2:0.27852476 3:0.34048378 
-1 1:1.0206649 2:-1.0005657 3:-1.3020532 
1 1:0.0087652163 2:-0.11406859 3:-1.114703 
-1 1:-0.27378388 2:1.2452488 3:1.9322301 
-1 1:-0.26683821 2:1.009846 3:1.9121013 
-1 1:0.46896855 2:0.077915365 3:0.046148574 
-1 1:0.90310455 2:-0.071710045 3:-0.011284142 
-1 1:1.2658491 2:-0.00056737883 3:0.15918925 
-1 1:1.2294278 2:-0.014924772 3:0.12723499 
-1 1:0.50896198 2:0.042147936 3:0.048324652 
1 1:-0.61291193 2:1.5968426 3:1.7114028 
-1 1:0.23597913 2:-0.072599798 3:-0.26345426 
-1 1:0.19252931 2:7.4926329e-18 3:0.077356033 
-1 1:0.33069948 2:0.12399907 3:0.054790789 
-1 1:-0.065736729 2:0.64076623 3:1.4453285 
-1 1:-0.34773157 2:0.60415322 3:1.6693844 
-1 1:0.073371754 2:2.3161339 3:1.1300157 
-1 1:1.2200469 2:-0.9161617 3:-0.7190929 
-1 1:-0.72277503 2:3.0078146 3:2.1928722 
-1 1:1.2422272 2:-0.90706536 3:-0.64758309 
1 1:6.1698173 2:-0.24275338 3:-2.7420047 
-1 1:-3.1714186 2:-0.0030599166 3:-0.23364056 
1 1:9.3412359 2:-0.23969347 3:-2.5083641 
-1 1:-0.8159016 2:0.087717609 3:1.0914941 
1 1:5.3539156 2:-0.15503577 3:-1.6505106 
-1 1:-3.3510494 2:0.19096146 3:1.8471731 
-1 1:0.62182921 2:-1.2927384 3:-1.3982109 
-1 1:0.061327293 2:1.3529372 3:0.60845549 
-1 1:0.20906237 2:2.3385019 3:1.1133536 
-1 1:0.23741325 2:-0.79906659 3:-0.59975826 
-1 1:1.5526946 2:-1.2016164 3:-1.2269724 
-1 1:0.49954426 2:-1.4503346 3:-2.2655122 
-1 1:0.08438523 2:0.72692222 3:1.5702372 
-1 1:0.58392949 2:-0.72341242 3:-0.69527502 
-1 1:0.54582483 2:-0.68948463 3:-0.80835477 
-1 1:-0.197574 2:4.2874084 3:2.9932438 
-1 1:-0.61654195 2:4.806639 3:3.4843193 
-1 1:0.013328461 2:-0.7029463 3:-1.0509682 
1 1:0.20220739 2:1.7412169 3:1.396144 
-1 1:-1.3652534 2:0.61952894 3:0.54082917 
-1 1:-1.0396336 2:0.5580869 3:0.33375271 
-1 1:1.3525929 2:-1.5758276 3:-1.8132656 
1 1:-0.70102141 2:0.5637877 3:0.29640497 
-1 1:-0.20449999 2:0.19502101 3:0.41088258 
-1 1:2.2076792 2:-0.0082934494 3:-0.28946432 
-1 1:-0.8997923 2:0.12058338 3:0.22216891 
-1 1:0.77393175 2:-0.04319152 3:-0.098564431 
-1 1:1.1670213 2:-0.12570423 3:-0.46942371 
1 1:0.75647893 2:-0.43608411 3:-1.3860944 
1 1:0.72743203 2:-0.33043714 3:-0.70587986 
-1 1:0.46212073 2:0.0079771403 3:-0.25294416 
1 1:-0.72609152 2:0.065821407 3:0.42990009 
-1 1:0.14386421 2:1.0477597 3:1.239573 
-1 1:-0.088170097 2:1.1455018 3:1.595389 
-1 1:0.31519059 2:-0.0012521282 3:0.38983588 
-1 1:0.42747905 2:-0.16738877 3:-0.69292933 
-1 1:0.60740728 2:-0.09021637 3:-0.0050838358 
1 1:-0.52920207 2:0.87729562 3:1.0773273 
-1 1:0.36529142 2:-2.233838 3:-1.396152 
1 1:-0.43749607 2:1.3056413 3:0.36244518 
1 1:0.16391065 2:1.3565423 3:0.31882464 
-1 1:0.18478394 2:-0.053429573 3:-0.14359083 
-1 1:-0.33425651 2:1.0950138 3:2.099622 
-1 1:0.17585126 2:-0.053429573 3:-0.031687692 
-1 1:0.40528015 2:-1.4048454 3:-1.3482084 
-0.3287784317505899 1:0.17519482 2:-1.8945876 3:-1.3176944 
-1 1:1.0795468 2:-0.61201727 3:-0.33277815 
-1 1:0.78835864 2:-0.93155906 3:-0.67067935 
1 1:-0.54499878 2:0.5271763 3:0.72720129 
1 1:1.8997396 2:-1.7391659 3:-2.946608 
-1 1:0.30723103 2:-0.46810502 3:-0.87695698 
-1 1:0.6496085 2:-0.33627975 3:-0.58425155 
-1 1:0.68527012 2:-0.50743075 3:-1.0609475 
1 1:-0.42125326 2:0.59743296 3:0.78023681 
1 1:-0.51495434 2:4.7490176 3:2.6368985 
-1 1:0.83611742 2:-3.2047565 3:-1.6025089 
-1 1:0.70399629 2:-2.4698334 3:-1.2479512 
1 1:0.56875469 2:0.14818888 3:0.17349293 
-1 1:-0.5387779 2:-0.14818888 3:-0.20533859 
-1 1:1.7294961 2:-0.063941156 3:-0.010014656 
1 1:-1.1075145 2:0.026005339 3:-0.12739478 
-1 1:-0.086967432 2:0.4707005 3:1.0050125 
-1 1:-0.52364671 2:1.5662161 3:1.2027145 
-1 1:-0.5095359 2:2.3028552 3:2.5430117 
-1 1:0.01411081 2:0.73663908 3:1.3402972 
-1 1:-0.38703479 2:0.92995335 3:2.1398751 
-1 1:0.042912843 2:0.44643137 3:1.8502733 
1 1:0.77269894 2:-0.12195463 3:-0.26423143 
-1 1:-0.42873281 2:-0.045231714 3:-0.028335198 
-1 1:-0.38038008 2:0.11587883 3:-0.13568968 
-1 1:-0.66115848 2:-0.027782522 3:0.036423843 
-1 1:-0.77162469 2:0.02097488 3:0.14957935 
-1 1:-0.16523384 2:0.018711532 3:0.48921196 
-1 1:0.74389651 2:-0.059385048 3:-0.57536497 
-1 1:-0.62076973 2:-0.017226197 3:0.1936932 
-1 1:-0.80704082 2:0.050091968 3:0.11782653 
1 1:0.081748244 2:-0.035132376 3:0.040764379 
-1 1:0.29861634 2:-2.292431 3:-2.1482677 
1 1:-0.076610783 2:-0.75459694 3:-0.85214909 
-1 1:0.160518 2:-1.2495812 3:-0.64283028 
-1 1:1.9803167 2:-2.5569894 3:-1.3894084 
-1 1:0.36063418 2:-0.89969935 3:-0.19105354 
-1 1:0.23399111 2:-1.3566404 3:-1.3730434 
-1 1:1.3540876 2:-1.7966652 3:-1.8130642 
-1 1:0.81111991 2:-1.3381671 3:-1.5400179 
-1 1:-0.36724963 2:0.12206401 3:-0.047810389 
-1 1:-0.57847031 2:0.16795424 3:0.25616854 
-1 1:-0.33545301 2:0.026918854 3:0.39793219 
1 1:1.4497941 2:-0.017502668 3:0.17911935 
1 1:1.0576752 2:-0.026005339 3:0.22584258 
-1 1:-0.64761353 2:0.051690432 3:0.2157312 
-1 1:0.61317058 2:-0.38052751 3:-2.2251639 
-1 1:0.096258911 2:-0.53712352 3:-2.8254792 
-1 1:-1.297664 2:0.12750996 3:0.43974926 
-1 1:1.0325828 2:-0.18968707 3:-0.53554526 
1 1:1.7699207 2:-1.108475 3:-3.1807014 
-1 1:1.5992363 2:-1.1850798 3:-1.2989693 
-1 1:0.87176715 2:-0.6509276 3:-0.67925661 
-1 1:1.0778895 2:-0.54690542 3:-0.51846728 
-1 1:1.0040074 2:-0.51665376 3:-0.46264865 
-1 1:0.0040335737 2:-0.038894818 3:-0.038018803 
1 1:-0.68919226 2:0.061123866 3:0.056018909 
1 1:-0.34647475 2:0.18817561 3:1.4012493 
-1 1:-0.29153191 2:1.3359383 3:1.401836 
-1 1:-0.0032719022 2:0.68642477 3:1.452524 
-1 1:-0.80924996 2:1.4499382 3:1.7284801 
-1 1:0.31165809 2:-0.21940735 3:-0.47328154 
-1 1:0.36025188 2:0.077228139 3:0.45283966 
-1 1:0.86795344 2:-0.16710868 3:-0.62500945 
-1 1:-0.7465769 2:0.28596257 3:0.85943575 
-1 1:0.12137654 2:0.11885389 3:0.2344263 
-1 1:0.20284479 2:-0.082966996 3:0.22255628 
-1 1:0.26177958 2:-0.24644021 3:-0.065920088 
-1 1:0.51733397 2:0.075084646 3:0.59756121 
-1 1:0.48772354 2:0.1180775 3:0.59847301 
-1 1:0.14579709 2:-1.1741502 3:-2.0708594 
-1 1:-0.2576646 2:-0.061928806 3:0.32182131 
-1 1:0.14701117 2:-1.1849012 3:-2.1174153 
1 1:-1.2422297 2:0.44139558 3:0.86666741 
1 1:0.80105701 2:7.4926329e-18 3:0.11577163 
-1 1:0.64977478 2:-0.123191 3:-0.4915115 
-1 1:0.60406925 2:-0.11390402 3:-0.26515149 
-1 1:0.94909369 2:-0.13220169 3:-0.53868088 
-1 1:2.1094824 2:-0.038175749 3:-0.43885354 
1 1:-0.12504259 2:0.052701774 3:0.12008853 
-1 1:1.2508209 2:-0.69707375 3:-1.1994496 
-1 1:0.39856 2:-0.61574307 3:-1.1100767 
-1 1:0.74732614 2:-0.85083395 3:-1.2230038 
-1 1:0.81313464 2:-0.82011738 3:-1.2312549 
-1 1:2.3877857 2:-0.067544826 3:-0.041085526 
1 1:1.9322213 2:-0.048278684 3:-0.33458693 
1 1:1.0099781 2:-0.028785882 3:-0.26535142 
-1 1:-1.5517236 2:0.0018132839 3:-0.011497223 
1 1:-2.010098 2:0.033432422 3:-0.0080695373 
1 1:1.2512213 2:-0.026745938 3:-0.16561231 
1 1:-1.3626046 2:0.20845576 3:0.35504331 
-1 1:1.0879046 2:-0.85662004 3:-1.2558639 
1 1:-0.89233626 2:1.0789533 3:1.7957049 
1 1:0.073085623 2:0.90764142 3:1.4440879 
-1 1:0.12248269 2:-0.68530816 3:-0.90424686 
-1 1:0.95408914 2:-0.36636909 3:-0.65869346 
-1 1:0.046321091 2:2.0170346 3:0.82013818 
-1 1:0.90776804 2:-2.3834037 3:-1.4788316 
-1 1:0.48179881 2:-0.79381895 3:-0.75278671 
-1 1:0.51324546 2:-0.82321492 3:-0.73094437 
-1 1:-0.70871139 2:0.19764795 3:0.12116102 
-1 1:0.9971752 2:-1.5144634 3:-1.3471165 
-1 1:0.59200571 2:-1.0364365 3:-1.4563651 
-1 1:0.76727277 2:-1.0364365 3:-1.0257364 
-1 1:0.99272246 2:-1.344008 3:-1.4377941 
-1 1:1.1889049 2:-0.7602404 3:-0.60605797 
1 1:-0.68703151 2:0.98554157 3:0.88646166 
-1 1:0.25483203 2:-0.56707917 3:-0.05987486 
-1 1:-0.43219948 2:0.4184624 3:0.8265868 
-1 1:0.33908185 2:-0.21781725 3:0.2264383 
-1 1:0.31381623 2:0.2332984 3:-0.43469097 
1 1:0.2851566 2:2.0081633 3:1.6642369 
-1 1:0.66724877 2:-2.4679467 3:-2.2507106 
-1 1:0.56422274 2:-2.2315635 3:-1.755647 
1 1:0.17021927 2:-2.6675673 3:0.1124127 
-1 1:-0.30403265 2:4.0995035 3:2.2548706 
-1 1:-0.7372925 2:6.8595138 3:2.0199569 
-1 1:-0.56707323 2:4.1919465 3:2.1323696 
-1 1:0.16142085 2:0.06423229 3:-0.12093589 
-1 1:-0.3253281 2:-0.55113886 3:-1.9946742 
-1 1:-0.3938798 2:-0.62493384 3:-2.3720336 
1 1:0.068551694 2:0.073794985 3:0.37735946 
-1 1:1.4828555 2:-0.32723341 3:-0.37799 
1 1:-0.87927013 2:0.53688931 3:0.33952434 
-1 1:0.85309558 2:-0.25486355 3:-0.84232958 
-1 1:0.04528041 2:0.42316258 3:-0.10071002 
-1 1:-0.28202879 2:1.0835271 3:1.1585782 
1 1:-0.3472907 2:0.088176442 3:0.039448279 
-1 1:2.3995102 2:-0.2447635 3:-0.33326743 
-1 1:-0.34570285 2:0.26880398 3:0.40711222 
1 1:-0.98944944 2:0.063879658 3:0.090139464 
-1 1:1.4499571 2:-0.0553859 3:-0.40930379 
1 1:-0.43960425 2:0.063879658 3:0.19299224 
1 1:0.28104251 2:0.037901057 3:0.048815412 
-1 1:-0.85982628 2:-0.053429573 3:0.062877816 
-1 1:-1.5333616 2:7.4926329e-18 3:0.054820052 
-1 1:0.6357942 2:-0.29238321 3:-1.0384317 
-1 1:-2.1124141 2:0.3840493 3:2.1209697 
-1 1:1.4732626 2:7.4926329e-18 3:-0.057633686 
1 1:-1.2163371 2:0.031180026 3:0.056953843 
-1 1:-0.72517728 2:0.16858923 3:0.49147546 
-1 1:0.1765539 2:0.12984191 3:0.34047101 
-1 1:1.8644519 2:-0.32981451 3:-0.63250124 
0.06854160371883822 1:-2.1927283 2:0.6161562 3:0.54881461 
-1 1:2.5413881 2:-0.27831007 3:-0.18706422 
-1 1:0.45510726 2:0.14548766 3:0.71705841 
-1 1:-0.50610189 2:0.96374331 3:1.6773452 
1 1:-0.5651974 2:0.15404808 3:0.20405697 
-1 1:-0.11009015 2:0.29953574 3:0.92111538 
-1 1:0.58604699 2:0.14548766 3:0.67738698 
-1 1:0.1414657 2:3.0459537 3:1.5733281 
-1 1:-0.23172529 2:3.2539197 3:2.1106676 
-1 1:-0.23444157 2:3.3485819 3:1.982602 
-1 1:0.4510253 2:-0.67044356 3:-0.36210354 
-1 1:0.86172842 2:-0.034184513 3:-0.28478232 
1 1:1.4274538 2:-0.22870043 3:-0.11598183 
-1 1:0.53389811 2:-0.083094447 3:-0.33514444 
-1 1:-0.014297257 2:-0.043751323 3:-0.13643501 
1 1:-0.72936123 2:0.043751323 3:0.19480719 
1 1:-0.43069186 2:0.029597138 3:0.096398881 
-1 1:0.64981447 2:-0.71583087 3:-1.8017027 
-1 1:0.28854722 2:0.94442021 3:1.3546222 
-1 1:0.9904669 2:-0.19838496 3:-0.50392277 
-1 1:0.14097874 2:0.25285241 3:1.113465 
1 1:0.6627496 2:-0.073997302 3:-0.034994816 
-1 1:-0.86373854 2:-0.11656413 3:-0.59172037 
-1 1:-1.3209568 2:-0.019737962 3:-0.084327525 
1 1:-0.58436545 2:0.12533864 3:0.40461063 
1 1:-0.57462305 2:0.043653284 3:0.25417622 
-1 1:-0.16985811 2:0.02515342 3:0.17885955 
-1 1:0.73360943 2:0.027591556 3:-0.0042166287 
-1 1:0.046059624 2:0.19527422 3:0.28542371 
-1 1:-0.41773506 2:0.43681593 3:0.51720759 
-1 1:0.21226775 2:0.45855075 3:0.92754466 
-1 1:-0.026609698 2:-0.16873613 3:-0.24276586 
1 1:-0.50594626 2:0.19392685 3:0.35074251 
1 1:0.83437385 2:0.093551663 3:-0.075497805 
1 1:1.4119039 2:-0.019030297 3:0.1155053 
-1 1:-2.7396698 2:0.77557652 3:0.56226624 
-1 1:-1.8748063 2:0.47947044 3:0.5523471 
-1 1:-2.0282685 2:0.49015927 3:0.55655593 
-1 1:-3.0474127 2:0.96632127 3:0.87551048 
-1 1:-2.4872521 2:0.49550369 3:0.68523227 
-1 1:0.97678898 2:-1.4040379 3:-1.4148309 
1 1:-1.0680926 2:1.5582042 3:2.1215288 
-1 1:0.15265916 2:0.11094114 3:0.10389694 
1 1:-0.11743074 2:-0.042889469 3:-0.32759611 
1 1:-0.26448879 2:0.0087058795 3:0.23998779 
-1 1:-1.5212344 2:0.65101007 3:1.4776195 
-1 1:0.96109835 2:-0.025647051 3:-0.22051838 
-1 1:-0.56013606 2:0.62536302 3:1.2571012 
-1 1:0.095224038 2:0.15589505 3:0.80063424 
-1 1:-0.93061528 2:0.85801136 3:1.9170893 
-1 1:-0.26386857 2:0.26669249 3:0.13410705 
-1 1:-0.22964286 2:0.084107203 3:0.69779356 
-1 1:-0.09004653 2:-0.05069867 3:-1.1911546 
1 1:-0.33989614 2:0.22554716 3:0.46113866 
1 1:1.6021062 2:-0.16922565 3:-0.67240773 
-1 1:-0.60376471 2:0.49223966 3:0.5952457 
-1 1:0.073379117 2:0.33698207 3:1.3784755 
1 1:0.65118397 2:-0.35252128 3:-0.76169946 
1 1:0.301739 2:-0.29009349 3:-1.35221 
-1 1:0.65766391 2:0.056887682 3:0.066866039 
0.3049476770272692 1:2.5541905 2:-8.6039935 3:-4.136922 
-1 1:0.51006472 2:-0.31180026 3:-0.94692575 
-1 1:-0.40342312 2:-0.31180026 3:-0.2552805 
-1 1:-0.1368948 2:-0.34082788 3:-0.5757592 
-1 1:0.65437785 2:-0.59267195 3:-0.41102378 
-1 1:-1.4687595 2:0.92861098 3:0.74602942 
-1 1:-0.62836449 2:0.091440462 3:0.042338639 
1 1:0.84039498 2:-0.83717052 3:-0.70369078 
-1 1:-1.0089216 2:0.96934893 3:0.82122072 
-1 1:-1.6005547 2:0.18254195 3:1.4546779 
-1 1:-1.6114912 2:0.052832179 3:0.53725011 
-1 1:0.11297348 2:-0.17140458 3:-0.39686189 
-1 1:0.44568524 2:-0.11524773 3:-0.43517139 
-1 1:-0.16027211 2:1.6426661 3:1.0347354 
-1 1:-0.28756832 2:2.3622986 3:1.470092 
-1 1:0.75640629 2:-0.38590636 3:-1.585443 
-1 1:0.44659889 2:-0.35020187 3:-0.95845489 
-1 1:0.85637649 2:-0.38590636 3:-0.60609614 
-1 1:1.174754 2:-0.4227414 3:-0.85526608 
1 1:-0.85313082 2:0.18282347 3:0.44378601 
-1 1:-0.72892661 2:0.17868376 3:0.94867147 
-1 1:1.4322731 2:0.11625367 3:0.51371029 
1 1:0.78530197 2:-0.16311591 3:-0.59777912 
-1 1:0.89776709 2:0.053598061 3:0.46351343 
-1 1:1.226673 2:0.0066601751 3:0.068915196 
-1 1:-0.14132267 2:-0.14863097 3:-0.40402415 
-1 1:0.65913914 2:-0.23340367 3:-0.67839433 
-1 1:0.0027115952 2:-0.072599798 3:0.14969529 
1 1:-0.89049823 2:0.1573725 3:0.4913872 
1 1:2.1367669 2:-0.07570403 3:-0.25431893 
1 1:4.3544656 2:-1.4112815 3:-2.8963572 
1 1:4.199822 2:-1.4421563 3:-2.017532 
1 1:-0.13168964 2:1.3397631 3:1.8616835 
-1 1:-1.6294066 2:-0.012762116 3:0.094307088 
-1 1:0.68542518 2:-0.13323649 3:-0.45601237 
-1 1:1.484414 2:-0.065852516 3:0.08534999 
-1 1:1.0272054 2:-0.14089376 3:-0.31637391 
-1 1:-1.5845834 2:0.052502932 3:0.17488061 
-1 1:-0.21614949 2:0.039759502 3:0.03859537 
-1 1:-0.54616952 2:0.037465685 3:0.07998731 
-1 1:-1.3074933 2:0.044856874 3:0.18837473 
-1 1:-0.85718961 2:0.049699378 3:0.1395841 
-1 1:-0.33002003 2:-0.0022938174 3:0.04139194 
1 1:-0.64144409 2:0.063003545 3:0.31488749 
-1 1:1.56665 2:-0.10000442 3:-0.24037438 
-1 1:-0.15774729 2:0.18002734 3:0.78824585 
1 1:-0.5294393 2:0.14911047 3:0.12552578 
-1 1:0.20433704 2:-0.057983864 3:-0.38409858 
-1 1:0.2778206 2:-0.13885182 3:-0.66212497 
-1 1:1.1694918 2:-0.12200582 3:-0.59526923 
1 1:0.89167123 2:0.016845992 3:0.066855742 
-1 1:1.3772871 2:-0.16195125 3:-0.80410861 
1 1:0.58124758 2:-0.0042114981 3:-0.0010046628 
-1 1:1.9433579 2:-0.090829605 3:-0.56371366 
-1 1:1.488806 2:-0.009353695 3:-0.34108201 
-1 1:0.051239939 2:2.9500793 3:1.3065679 
-1 1:-0.46871401 2:2.6655274 3:0.47799898 
-1 1:2.3434112 2:-0.1576917 3:-0.65366471 
-1 1:-1.9976733 2:0.35311764 3:2.1794473 
1 1:-0.092602597 2:-0.20647448 3:-1.1684558 
-1 1:1.0311594 2:-0.70730454 3:-0.90215609 
-1 1:0.18298388 2:0.30314778 3:0.66178666 
-1 1:0.021015273 2:0.073925931 3:0.36904274 
-1 1:1.058384 2:-0.61236072 3:-1.0012601 
-1 1:1.1425676 2:-0.063355594 3:-0.077770018 
-1 1:1.3647555 2:-0.13059176 3:-0.1122122 
1 1:1.605918 2:-0.0048935421 3:-0.0090678336 
-1 1:-1.0561663 2:1.9955882 3:1.2714961 
1 1:-0.10910864 2:-0.12947589 3:-0.32700868 
-1 1:0.21890338 2:7.4926329e-18 3:0.14689664 
-1 1:-1.165961 2:2.1250641 3:1.4516082 
-1 1:0.55671595 2:-0.11401066 3:0.047527941 
-1 1:-1.3906533 2:0.4962528 3:1.8108656 
-1 1:-1.9722771 2:0.30053147 3:1.4449356 
-1 1:-0.45156788 2:0.48880539 3:1.5171881 
-1 1:-0.67716753 2:0.27891777 3:0.79448506 
-0.1700328494960766 1:-1.6162529 2:0.28636519 3:1.0881625 
-1 1:-0.52817934 2:0.042171799 3:0.87443907 
-1 1:-0.48972777 2:0.015420528 3:0.31904717 
1 1:1.6657326 2:-0.49876641 3:-1.6004297 
-1 1:-0.6241666 2:1.7290795 3:-0.79229057 
-1 1:-1.4231713 2:2.1057494 3:0.65298346 
-1 1:-1.076123 2:1.9838546 3:0.46778458 
1 1:0.77694227 2:0.038863624 3:-0.21056267 
-1 1:-0.45195642 2:0.25477506 3:1.2600751 
-1 1:-0.79900471 2:0.37666985 3:1.445274 
-1 1:0.092714193 2:0.26430651 3:0.60301235 
-1 1:0.69303039 2:-0.066438481 3:-0.29932626 
-1 1:0.47961734 2:-0.15501956 3:-0.17100432 
-1 1:1.2204344 2:-0.52997666 3:-1.5398828 
1 1:0.026478427 2:-0.89802952 3:0.38933178 
-1 1:0.65105276 2:-0.035771824 3:-0.015072166 
1 1:1.8254834 2:-0.0081978583 3:-0.15402956 
-1 1:-1.1497144 2:7.4926329e-18 3:-0.069533831 
-1 1:0.21852203 2:0.36976653 3:0.35116903 
-1 1:-0.18427336 2:0.11404696 3:-0.25617893 
-1 1:0.44122891 2:-0.24153581 3:-0.60072949 
-1 1:0.068297224 2:-0.26111288 3:-0.26751892 
-1 1:0.082994031 2:-0.14875522 3:-0.23012559 
-1 1:0.063698241 2:-1.5945673 3:-1.2030282 
-1 1:0.11022325 2:-1.6835727 3:-1.3755314 
-1 1:-0.20048235 2:-0.24428078 3:-0.33681401 
-1 1:0.8326889 2:-0.021064164 3:-0.21911445 
1 1:0.14902055 2:0.03194384 3:0.14719785 
-1 1:-0.31973575 2:0.075092395 3:0.61062003 
-1 1:0.36066496 2:-0.015674419 3:-0.33513255 
1 1:-0.5963951 2:0.0081978583 3:-0.17119194 
1 1:-1.2767958 2:0.098964672 3:0.77456064 
-1 1:0.61714815 2:0.029860681 3:0.17704696 
-1 1:-1.9958336 2:0.38395462 3:1.3377845 
-1 1:-0.57832357 2:0.024964259 3:0.21874114 
-1 1:-1.6307732 2:0.34018003 3:0.99463053 
-1 1:-1.8920312 2:0.31446195 3:1.111342 
-1 1:-0.52206273 2:-0.04429143 3:0.20564762 
-1 1:-0.6301141 2:-0.04429143 3:0.10388503 
1 1:-0.69193151 2:0.27081209 3:0.3231725 
-1 1:0.34217316 2:-0.024370779 3:0.23796335 
-1 1:0.73057918 2:-0.19714343 3:-0.53153305 
-1 1:-0.016879078 2:0.14419643 3:0.008843301 
-1 1:-0.22405267 2:1.2655911 3:0.76163023 
-1 1:1.0102991 2:-0.066545433 3:-0.20333661 
-1 1:-0.11772509 2:-0.055605544 3:-0.024386326 
-1 1:-0.24150303 2:-0.058663967 3:-0.061051936 
-1 1:-1.0661775 2:0.26043152 3:0.6990723 
-1 1:0.12368946 2:-0.035044433 3:-0.4146752 
-1 1:0.42774927 2:-2.2161373 3:-2.1060458 
-1 1:0.24351515 2:-1.5848191 3:-1.5433325 
-1 1:0.0040091452 2:0.57344741 3:0.42879038 
-1 1:0.65964764 2:7.4926329e-18 3:0.070042142 
-1 1:0.30050125 2:-0.72531171 3:-0.73713346 
1 1:1.8791449 2:7.4926329e-18 3:-0.11082276 
-1 1:-0.018531898 2:-0.29447115 3:-1.9756617 
-1 1:-1.2124304 2:0.0056096415 3:0.4568143 
-1 1:0.16283518 2:0.24422581 3:0.92736437 
-1 1:0.41945752 2:-0.007988611 3:0.20660853 
-1 1:0.24012573 2:0.047273375 3:0.37565904 
-1 1:0.15593185 2:-0.29851341 3:-0.71244017 
1 1:-0.75316033 2:0.18254468 3:0.71635436 
-1 1:0.71374482 2:-0.32269052 3:-0.3921745 
1 1:0.35731329 2:-0.024139342 3:-0.24866023 
-1 1:-0.30733305 2:0.56249736 3:0.60706478 
-1 1:-0.88283546 2:0.15084256 3:0.33155499 
-1 1:-0.19048446 2:0.23542627 3:0.54861736 
-1 1:0.38159138 2:-0.63646771 3:-0.67347671 
1 1:-0.17792156 2:-0.51689377 3:-0.83608618 
1 1:-0.28480984 2:-0.30625926 3:-0.30098149 
-1 1:0.20366982 2:-1.1533615 3:-1.5095629 
-1 1:0.35459165 2:-5.5137057 3:-2.328515 
-1 1:0.12867393 2:-0.2985926 3:-0.12691965 
-1 1:-0.73820747 2:2.6968628 3:1.5608598 
-1 1:-0.26278797 2:-3.0248136 3:-0.58977328 
-1 1:-0.1694128 2:2.273231 3:1.4259995 
-1 1:0.3069858 2:-0.80964439 3:-1.2242785 
-1 1:0.037593638 2:-0.2360626 3:-0.45028988 
-1 1:1.3919102 2:-0.086891935 3:-0.53673872 
1 1:-0.83999983 2:0.077099797 3:0.49256822 
1 1:-0.70587478 2:0.16946697 3:1.0501135 
-1 1:1.3269886 2:-0.024857196 3:0.073429657 
-1 1:0.44514626 2:-0.05427271 3:0.20060436 
-1 1:-0.54063188 2:0.97124947 3:2.7885862 
-1 1:-0.98577814 2:1.0255222 3:2.5879818 
-1 1:0.7249819 2:-0.01641691 3:-0.48335015 
1 1:1.5736281 2:-0.19223034 3:-0.569715 
1 1:1.0059615 2:-0.060872942 3:-0.49400119 
-1 1:0.59326492 2:0.81898013 3:0.24253394 
-1 1:-1.0688591 2:0.96524434 3:0.51605894 
1.302723211232949e-05 1:-0.52983718 2:-0.21602989 3:0.038325901 
1 1:0.72427438 2:7.4926329e-18 3:-0.05003408 
-1 1:0.7400106 2:-0.066382992 3:-0.099666159 
-1 1:-0.26795692 2:0.086956829 3:0.39331149 
1 1:0.70067518 2:-0.12863649 3:-0.47821455 
1 1:0.076654002 2:0.27908749 3:1.1471942 
1 1:0.51340168 2:0.029205269 3:0.021665742 
1 1:-0.78463782 2:0.21631786 3:1.22391 
-1 1:-0.81001728 2:0.7139634 3:2.3028999 
-1 1:-1.2782989 2:0.71872946 3:2.0404907 
-1 1:-1.2869779 2:0.94457663 3:0.33346625 
-1 1:-1.2919337 2:0.92262434 3:0.044105681 
1 1:0.0049558168 2:0.021952291 3:0.28936056 
-1 1:0.88592775 2:-0.42187865 3:-1.4254831 
-1 1:0.44603054 2:-0.37752572 3:-1.4537933 
-1 1:1.075863 2:0.037155198 3:-0.37835272 
-1 1:1.5337292 2:-0.28643328 3:-0.97929271 
-1 1:-0.12469358 2:-0.26170847 3:-0.71566219 
1 1:0.78277163 2:0.29432522 3:0.63177738 
1 1:-0.89375481 2:-0.032616745 3:0.20800612 
1 1:1.0184484 2:0.29432522 3:0.50765607 
1 1:-0.58159056 2:1.1973829 3:0.93703989 
-1 1:0.46916046 2:-1.7134764 3:-1.7723315 
-1 1:-0.032109042 2:1.4890544 3:1.3153178 
-1 1:0.56124572 2:-0.041365539 3:0.19683993 
-1 1:-0.18454757 2:-0.072304696 3:-0.13033869 
-1 1:-1.0001645 2:-0.0036265678 3:-0.033623754 
-1 1:-0.15545363 2:-0.054511848 3:0.002700058 
-1 1:-0.015134198 2:0.58109965 3:0.96338366 
-1 1:0.85600274 2:-0.044262909 3:-0.37844843 
-1 1:0.15079111 2:0.36753822 3:0.63731951 
-1 1:-0.48139213 2:0.17686753 3:0.78529065 
-1 1:-0.70521163 2:0.41180113 3:1.0157679 
-1 1:0.60077077 2:-0.9060722 3:-0.97497049 
-1 1:0.3415867 2:-0.28597689 3:-0.64959232 
-1 1:0.70049166 2:0.13226912 3:0.55819479 
1 1:-0.66098475 2:0.08325131 3:0.23734603 
-1 1:0.26049765 2:-0.1541078 3:-1.3007903 
-1 1:1.0494034 2:-0.041887648 3:-0.1959756 
-1 1:-0.58391537 2:0.0026879267 3:0.026836433 
-1 1:0.84832844 2:-0.0047686593 3:0.088715571 
-1 1:0.56495047 2:-0.18803551 3:-0.5943173 
-1 1:1.0491393 2:-0.81007231 3:-1.1180354 
-1 1:0.58974642 2:-0.32831265 3:-0.63671911 
-1 1:0.97962971 2:-0.72857752 3:-1.3152185 
-1 1:-0.41083715 2:-0.10678517 3:-0.13654455 
-1 1:-1.1700034 2:7.4926329e-18 3:0.33960537 
-1 1:0.87942651 2:-0.013750441 3:0.074005706 
1 1:0.07542317 2:2.1267658 3:1.3217411 
-1 1:0.81896613 2:-2.3812827 3:-1.9436685 
-1 1:0.087050774 2:-2.279026 3:-1.7794178 
-1 1:-0.31172315 2:-1.1193766 3:-0.67422152 
-1 1:0.27585461 2:0.030057031 3:0.024966164 
-1 1:0.69820737 2:0.12225219 3:0.075752316 
